{"learner":{"attributes":{"scikit_learn":"{\"_estimator_type\": \"regressor\"}"},"feature_names":["raw_material_cost","demand_index","inventory_level","competitor_price_avg"],"feature_types":["float","float","float","float"],"gradient_booster":{"model":{"cats":{"enc":[],"feature_segments":[],"sorted_idx":[]},"gbtree_model_param":{"num_parallel_tree":"1","num_trees":"50"},"iteration_indptr":[0,1,2,3,4,5,6,7,8,9,10,11,12,13,14,15,16,17,18,19,20,21,22,23,24,25,26,27,28,29,30,31,32,33,34,35,36,37,38,39,40,41,42,43,44,45,46,47,48,49,50],"tree_info":[0,0,0,0,0,0,0,0,0,0,0,0,0,0,0,0,0,0,0,0,0,0,0,0,0,0,0,0,0,0,0,0,0,0,0,0,0,0,0,0,0,0,0,0,0,0,0,0,0,0],"trees":[{"base_weights":[-1.646303E-5,-7.943518E1,7.571889E1,-1.3872508E2,-4.4448425E1,3.9281525E1,1.4648315E2,-1.8279955E1,-1.1591204E1,-6.1883388E0,-1.9965798E0,1.7290261E0,6.3624053E0,1.1378238E1,1.8619993E1],"categories":[],"categories_nodes":[],"categories_segments":[],"categories_sizes":[],"default_left":[0,0,0,0,0,0,0,0,0,0,0,0,0,0,0],"id":0,"left_children":[1,3,5,7,9,11,13,-1,-1,-1,-1,-1,-1,-1,-1],"loss_changes":[6.026773E6,1.0081965E6,1.3169978E6,1.6080225E5,1.3066225E5,1.8090969E5,2.0479975E5,0E0,0E0,0E0,0E0,0E0,0E0,0E0,0E0],"parents":[2147483647,0,0,1,1,2,2,3,3,4,4,5,5,6,6],"right_children":[2,4,6,8,10,12,14,-1,-1,-1,-1,-1,-1,-1,-1],"split_conditions":[3.9960138E2,3.5697934E2,4.458931E2,3.260739E2,3.818194E2,4.2063904E2,4.7480222E2,-1.8279955E1,-1.1591204E1,-6.1883388E0,-1.9965798E0,1.7290261E0,6.3624053E0,1.1378238E1,1.8619993E1],"split_indices":[0,0,0,0,0,0,0,0,0,0,0,0,0,0,0],"split_type":[0,0,0,0,0,0,0,0,0,0,0,0,0,0,0],"sum_hessian":[1E3,4.88E2,5.12E2,1.8E2,3.08E2,3.39E2,1.73E2,5.9E1,1.21E2,1.79E2,1.29E2,1.79E2,1.6E2,9.7E1,7.6E1],"tree_param":{"num_deleted":"0","num_feature":"4","num_nodes":"15","size_leaf_vector":"1"}},{"base_weights":[2.1340964E-5,-6.949781E1,7.0335175E1,-1.2602387E2,-3.8782528E1,4.2475758E1,1.4493141E2,-1.811274E1,-1.1067031E1,-6.066339E0,-2.0454578E0,1.812047E0,6.419966E0,1.2085423E1,1.847229E1],"categories":[],"categories_nodes":[],"categories_segments":[],"categories_sizes":[],"default_left":[0,0,0,0,0,0,0,0,0,0,0,0,0,0,0],"id":1,"left_children":[1,3,5,7,9,11,13,-1,-1,-1,-1,-1,-1,-1,-1],"loss_changes":[4.897917E6,8.7016425E5,1.0287915E6,1.29703E5,1.3029747E5,1.9142612E5,1.070145E5,0E0,0E0,0E0,0E0,0E0,0E0,0E0,0E0],"parents":[2147483647,0,0,1,1,2,2,3,3,4,4,5,5,6,6],"right_children":[2,4,6,8,10,12,14,-1,-1,-1,-1,-1,-1,-1,-1],"split_conditions":[4.0143726E2,3.5580713E2,4.5457535E2,3.1652972E2,3.764481E2,4.2238544E2,4.8761353E2,-1.811274E1,-1.1067031E1,-6.066339E0,-2.0454578E0,1.812047E0,6.419966E0,1.2085423E1,1.847229E1],"split_indices":[0,0,0,0,0,0,0,0,0,0,0,0,0,0,0],"split_type":[0,0,0,0,0,0,0,0,0,0,0,0,0,0,0],"sum_hessian":[1E3,5.03E2,4.97E2,1.76E2,3.27E2,3.63E2,1.34E2,3.6E1,1.4E2,1.48E2,1.79E2,1.72E2,1.91E2,8.6E1,4.8E1],"tree_param":{"num_deleted":"0","num_feature":"4","num_nodes":"15","size_leaf_vector":"1"}},{"base_weights":[1.5071598E-3,-6.4545525E1,6.152879E1,-1.0477368E2,-3.0426529E1,2.9527687E1,1.1577526E2,-1.3890441E1,-8.0813465E0,-4.1756377E0,-1.293094E0,1.4090317E0,4.8487678E0,8.57954E0,1.4677775E1],"categories":[],"categories_nodes":[],"categories_segments":[],"categories_sizes":[],"default_left":[0,0,0,0,0,0,0,0,0,0,0,0,0,0,0],"id":2,"left_children":[1,3,5,7,9,11,13,-1,-1,-1,-1,-1,-1,-1,-1],"loss_changes":[3.9793462E6,6.679864E5,8.871221E5,1.71957E5,5.2187203E4,9.414909E4,1.64003E5,0E0,0E0,0E0,0E0,0E0,0E0,0E0,0E0],"parents":[2147483647,0,0,1,1,2,2,3,3,4,4,5,5,6,6],"right_children":[2,4,6,8,10,12,14,-1,-1,-1,-1,-1,-1,-1,-1],"split_conditions":[3.9960138E2,3.637128E2,4.417846E2,3.3550195E2,3.8594498E2,4.2063904E2,4.701397E2,-1.3890441E1,-8.0813465E0,-4.1756377E0,-1.293094E0,1.4090317E0,4.8487678E0,8.57954E0,1.4677775E1],"split_indices":[0,0,0,0,0,0,0,0,0,0,0,0,0,0,0],"split_type":[0,0,0,0,0,0,0,0,0,0,0,0,0,0,0],"sum_hessian":[1E3,4.88E2,5.12E2,2.23E2,2.65E2,3.23E2,1.89E2,9E1,1.33E2,1.6E2,1.05E2,1.79E2,1.44E2,9.8E1,9.1E1],"tree_param":{"num_deleted":"0","num_feature":"4","num_nodes":"15","size_leaf_vector":"1"}},{"base_weights":[3.4306513E-3,-5.2696987E1,6.135445E1,-9.270891E1,-2.1695353E1,4.0090736E1,1.2461667E2,-1.2766662E1,-7.3138986E0,-3.3969605E0,-4.6857572E-1,2.341056E0,6.2211175E0,1.0918507E1,1.738343E1],"categories":[],"categories_nodes":[],"categories_segments":[],"categories_sizes":[],"default_left":[0,0,0,0,0,0,0,0,0,0,0,0,0,0,0],"id":3,"left_children":[1,3,5,7,9,11,13,-1,-1,-1,-1,-1,-1,-1,-1],"loss_changes":[3.2396908E6,6.665831E5,6.178269E5,1.5143075E5,6.3518734E4,1.26946125E5,6.9122625E4,0E0,0E0,0E0,0E0,0E0,0E0,0E0,0E0],"parents":[2147483647,0,0,1,1,2,2,3,3,4,4,5,5,6,6],"right_children":[2,4,6,8,10,12,14,-1,-1,-1,-1,-1,-1,-1,-1],"split_conditions":[4.0546973E2,3.6501373E2,4.5897202E2,3.3259073E2,3.8895178E2,4.3128336E2,4.9823627E2,-1.2766662E1,-7.3138986E0,-3.3969605E0,-4.6857572E-1,2.341056E0,6.2211175E0,1.0918507E1,1.738343E1],"split_indices":[0,0,0,0,0,0,0,0,0,0,0,0,0,0,0],"split_type":[0,0,0,0,0,0,0,0,0,0,0,0,0,0,0],"sum_hessian":[1E3,5.38E2,4.62E2,2.34E2,3.04E2,3.47E2,1.15E2,8.2E1,1.52E2,1.76E2,1.28E2,1.99E2,1.48E2,9E1,2.5E1],"tree_param":{"num_deleted":"0","num_feature":"4","num_nodes":"15","size_leaf_vector":"1"}},{"base_weights":[1.5993346E-2,-4.747171E1,5.5298622E1,-8.2518906E1,-1.86369E1,3.610626E1,1.12399E2,-1.1197401E1,-6.3184986E0,-3.0477898E0,-5.320067E-1,2.303421E0,5.9242516E0,9.838656E0,1.5711947E1],"categories":[],"categories_nodes":[],"categories_segments":[],"categories_sizes":[],"default_left":[0,0,0,0,0,0,0,0,0,0,0,0,0,0,0],"id":4,"left_children":[1,3,5,7,9,11,13,-1,-1,-1,-1,-1,-1,-1,-1],"loss_changes":[2.6304958E6,5.431641E5,5.033395E5,1.3130925E5,4.667017E4,1.0388391E5,5.7232E4,0E0,0E0,0E0,0E0,0E0,0E0,0E0,0E0],"parents":[2147483647,0,0,1,1,2,2,3,3,4,4,5,5,6,6],"right_children":[2,4,6,8,10,12,14,-1,-1,-1,-1,-1,-1,-1,-1],"split_conditions":[4.0546973E2,3.661804E2,4.5897202E2,3.3616257E2,3.877306E2,4.3409457E2,4.9823627E2,-1.1197401E1,-6.3184986E0,-3.0477898E0,-5.320067E-1,2.303421E0,5.9242516E0,9.838656E0,1.5711947E1],"split_indices":[0,0,0,0,0,0,0,0,0,0,0,0,0,0,0],"split_type":[0,0,0,0,0,0,0,0,0,0,0,0,0,0,0],"sum_hessian":[1E3,5.38E2,4.62E2,2.42E2,2.96E2,3.47E2,1.15E2,9.4E1,1.48E2,1.56E2,1.4E2,2.23E2,1.24E2,9E1,2.5E1],"tree_param":{"num_deleted":"0","num_feature":"4","num_nodes":"15","size_leaf_vector":"1"}},{"base_weights":[2.7063757E-2,-4.9661552E1,4.3053467E1,-9.423607E1,-3.2996693E1,1.8687168E1,8.369222E1,-1.3536903E1,-8.110248E0,-5.0766068E0,-2.0754478E0,8.3217955E-1,3.4327831E0,6.8932123E0,1.2360848E1],"categories":[],"categories_nodes":[],"categories_segments":[],"categories_sizes":[],"default_left":[0,0,0,0,0,0,0,0,0,0,0,0,0,0,0],"id":5,"left_children":[1,3,5,7,9,11,13,-1,-1,-1,-1,-1,-1,-1,-1],"loss_changes":[2.1421982E6,3.4230562E5,5.30182E5,5.7089375E4,7.290881E4,5.4349203E4,1.0990225E5,0E0,0E0,0E0,0E0,0E0,0E0,0E0,0E0],"parents":[2147483647,0,0,1,1,2,2,3,3,4,4,5,5,6,6],"right_children":[2,4,6,8,10,12,14,-1,-1,-1,-1,-1,-1,-1,-1],"split_conditions":[3.9722263E2,3.459226E2,4.4067587E2,3.11848E2,3.6996808E2,4.2063904E2,4.8345108E2,-1.3536903E1,-8.110248E0,-5.0766068E0,-2.0754478E0,8.3217955E-1,3.4327831E0,6.8932123E0,1.2360848E1],"split_indices":[0,0,0,0,0,0,0,0,0,0,0,0,0,0,0],"split_type":[0,0,0,0,0,0,0,0,0,0,0,0,0,0,0],"sum_hessian":[1E3,4.64E2,5.36E2,1.25E2,3.39E2,3.36E2,2E2,2.8E1,9.7E1,1.37E2,2.02E2,2.03E2,1.33E2,1.48E2,5.2E1],"tree_param":{"num_deleted":"0","num_feature":"4","num_nodes":"15","size_leaf_vector":"1"}},{"base_weights":[1.9084493E-2,-3.9834267E1,4.3707657E1,-7.653888E1,-2.1681616E1,2.6060162E1,8.6559746E1,-1.2229891E1,-6.6859026E0,-3.4724731E0,-8.589698E-1,1.3696159E0,4.038447E0,7.886281E0,1.4964934E1],"categories":[],"categories_nodes":[],"categories_segments":[],"categories_sizes":[],"default_left":[0,0,0,0,0,0,0,0,0,0,0,0,0,0,0],"id":6,"left_children":[1,3,5,7,9,11,13,-1,-1,-1,-1,-1,-1,-1,-1],"loss_changes":[1.7446181E6,3.4747438E5,3.592232E5,6.845356E4,5.980903E4,5.966283E4,5.5696188E4,0E0,0E0,0E0,0E0,0E0,0E0,0E0,0E0],"parents":[2147483647,0,0,1,1,2,2,3,3,4,4,5,5,6,6],"right_children":[2,4,6,8,10,12,14,-1,-1,-1,-1,-1,-1,-1,-1],"split_conditions":[4.0370474E2,3.5507925E2,4.5368158E2,3.11848E2,3.792356E2,4.264902E2,5.1353467E2,-1.2229891E1,-6.6859026E0,-3.4724731E0,-8.589698E-1,1.3696159E0,4.038447E0,7.886281E0,1.4964934E1],"split_indices":[0,0,0,0,0,0,0,0,0,0,0,0,0,0,0],"split_type":[0,0,0,0,0,0,0,0,0,0,0,0,0,0,0],"sum_hessian":[1E3,5.23E2,4.77E2,1.72E2,3.51E2,3.39E2,1.38E2,2.8E1,1.44E2,1.75E2,1.76E2,1.83E2,1.56E2,1.25E2,1.3E1],"tree_param":{"num_deleted":"0","num_feature":"4","num_nodes":"15","size_leaf_vector":"1"}},{"base_weights":[2.2184236E-2,-4.3117893E1,3.298481E1,-7.8859146E1,-2.9677559E1,1.3605704E1,6.830086E1,-1.1440764E1,-6.8565826E0,-4.1747475E0,-1.9259621E0,2.3117344E-1,2.4406784E0,5.51994E0,1.0043087E1],"categories":[],"categories_nodes":[],"categories_segments":[],"categories_sizes":[],"default_left":[0,0,0,0,0,0,0,0,0,0,0,0,0,0,0],"id":7,"left_children":[1,3,5,7,9,11,13,-1,-1,-1,-1,-1,-1,-1,-1],"loss_changes":[1.4248544E6,2.0614212E5,3.8780612E5,3.5333125E4,3.905672E4,4.4834812E4,7.906725E4,0E0,0E0,0E0,0E0,0E0,0E0,0E0,0E0],"parents":[2147483647,0,0,1,1,2,2,3,3,4,4,5,5,6,6],"right_children":[2,4,6,8,10,12,14,-1,-1,-1,-1,-1,-1,-1,-1],"split_conditions":[3.9278198E2,3.4351465E2,4.4067587E2,3.0663675E2,3.6996808E2,4.1399844E2,4.814308E2,-1.1440764E1,-6.8565826E0,-4.1747475E0,-1.9259621E0,2.3117344E-1,2.4406784E0,5.51994E0,1.0043087E1],"split_indices":[0,0,0,0,0,0,0,0,0,0,0,0,0,0,0],"split_type":[0,0,0,0,0,0,0,0,0,0,0,0,0,0,0],"sum_hessian":[1E3,4.33E2,5.67E2,1.17E2,3.16E2,3.67E2,2E2,2.4E1,9.3E1,1.45E2,1.71E2,1.8E2,1.87E2,1.44E2,5.6E1],"tree_param":{"num_deleted":"0","num_feature":"4","num_nodes":"15","size_leaf_vector":"1"}},{"base_weights":[1.3806567E-2,-3.02567E1,3.8210648E1,-5.752179E1,-1.3048805E1,2.599433E1,7.985267E1,-8.916628E0,-4.819364E0,-2.4506624E0,-4.6766433E-1,1.6343669E0,3.9772632E0,7.2618747E0,1.3769608E1],"categories":[],"categories_nodes":[],"categories_segments":[],"categories_sizes":[],"default_left":[0,0,0,0,0,0,0,0,0,0,0,0,0,0,0],"id":8,"left_children":[1,3,5,7,9,11,13,-1,-1,-1,-1,-1,-1,-1,-1],"loss_changes":[1.15855E6,2.6151819E5,2.2328362E5,5.9462562E4,3.288418E4,4.509158E4,3.1844188E4,0E0,0E0,0E0,0E0,0E0,0E0,0E0,0E0],"parents":[2147483647,0,0,1,1,2,2,3,3,4,4,5,5,6,6],"right_children":[2,4,6,8,10,12,14,-1,-1,-1,-1,-1,-1,-1,-1],"split_conditions":[4.0872888E2,3.6204337E2,4.6645764E2,3.2216855E2,3.818194E2,4.3409457E2,5.22765E2,-8.916628E0,-4.819364E0,-2.4506624E0,-4.6766433E-1,1.6343669E0,3.9772632E0,7.2618747E0,1.3769608E1],"split_indices":[0,0,0,0,0,0,0,0,0,0,0,0,0,0,0],"split_type":[0,0,0,0,0,0,0,0,0,0,0,0,0,0,0],"sum_hessian":[1E3,5.58E2,4.42E2,2.15E2,3.43E2,3.43E2,9.9E1,4.7E1,1.68E2,1.44E2,1.99E2,2.03E2,1.4E2,9E1,9E0],"tree_param":{"num_deleted":"0","num_feature":"4","num_nodes":"15","size_leaf_vector":"1"}},{"base_weights":[2.2407401E-2,-3.5138283E1,2.6888105E1,-6.471784E1,-2.4016747E1,1.2397229E1,5.856813E1,-1.1194923E1,-5.831477E0,-3.4673538E0,-1.651994E0,4.2700562E-1,2.4483144E0,5.1125574E0,1.001121E1],"categories":[],"categories_nodes":[],"categories_segments":[],"categories_sizes":[],"default_left":[0,0,0,0,0,0,0,0,0,0,0,0,0,0,0],"id":9,"left_children":[1,3,5,7,9,11,13,-1,-1,-1,-1,-1,-1,-1,-1],"loss_changes":[9.465059E5,1.4121875E5,2.6002647E5,2.9158E4,2.4752938E4,3.830116E4,4.9918125E4,0E0,0E0,0E0,0E0,0E0,0E0,0E0,0E0],"parents":[2147483647,0,0,1,1,2,2,3,3,4,4,5,5,6,6],"right_children":[2,4,6,8,10,12,14,-1,-1,-1,-1,-1,-1,-1,-1],"split_conditions":[3.9278198E2,3.4351465E2,4.44082E2,2.966279E2,3.673688E2,4.2063904E2,4.9823627E2,-1.1194923E1,-5.831477E0,-3.4673538E0,-1.651994E0,4.2700562E-1,2.4483144E0,5.1125574E0,1.001121E1],"split_indices":[0,0,0,0,0,0,0,0,0,0,0,0,0,0,0],"split_type":[0,0,0,0,0,0,0,0,0,0,0,0,0,0,0],"sum_hessian":[1E3,4.33E2,5.67E2,1.17E2,3.16E2,3.9E2,1.77E2,1.2E1,1.05E2,1.29E2,1.87E2,2.34E2,1.56E2,1.52E2,2.5E1],"tree_param":{"num_deleted":"0","num_feature":"4","num_nodes":"15","size_leaf_vector":"1"}},{"base_weights":[1.6022857E-2,-2.3566303E1,3.269435E1,-4.8709274E1,-1.0771501E1,2.2281815E1,6.579165E1,-8.361786E0,-4.239345E0,-1.9841028E0,-2.1035992E-1,1.3373522E0,3.062315E0,5.951904E0,1.1629328E1],"categories":[],"categories_nodes":[],"categories_segments":[],"categories_sizes":[],"default_left":[0,0,0,0,0,0,0,0,0,0,0,0,0,0,0],"id":10,"left_children":[1,3,5,7,9,11,13,-1,-1,-1,-1,-1,-1,-1,-1],"loss_changes":[7.721721E5,1.8670434E5,1.4327731E5,3.9668562E4,3.03818E4,2.3443031E4,2.4756062E4,0E0,0E0,0E0,0E0,0E0,0E0,0E0,0E0],"parents":[2147483647,0,0,1,1,2,2,3,3,4,4,5,5,6,6],"right_children":[2,4,6,8,10,12,14,-1,-1,-1,-1,-1,-1,-1,-1],"split_conditions":[4.10699E2,3.5908896E2,4.6645764E2,3.11848E2,3.8594498E2,4.3128336E2,5.22765E2,-8.361786E0,-4.239345E0,-1.9841028E0,-2.1035992E-1,1.3373522E0,3.062315E0,5.951904E0,1.1629328E1],"split_indices":[0,0,0,0,0,0,0,0,0,0,0,0,0,0,0],"split_type":[0,0,0,0,0,0,0,0,0,0,0,0,0,0,0],"sum_hessian":[1E3,5.81E2,4.19E2,1.95E2,3.86E2,3.2E2,9.9E1,2.8E1,1.67E2,1.88E2,1.98E2,1.56E2,1.64E2,9E1,9E0],"tree_param":{"num_deleted":"0","num_feature":"4","num_nodes":"15","size_leaf_vector":"1"}},{"base_weights":[2.1613214E-2,-2.586463E1,2.4305573E1,-5.203725E1,-1.6632366E1,1.4952494E1,5.6509296E1,-1.0511597E1,-4.7547884E0,-2.5182524E0,-8.675933E-1,6.5902907E-1,2.4824069E0,5.1372046E0,1.0582693E1],"categories":[],"categories_nodes":[],"categories_segments":[],"categories_sizes":[],"default_left":[0,0,0,0,0,0,0,0,0,0,0,0,0,0,0],"id":11,"left_children":[1,3,5,7,9,11,13,-1,-1,-1,-1,-1,-1,-1,-1],"loss_changes":[6.298778E5,1.1632625E5,1.548775E5,2.50265E4,2.4271875E4,3.302075E4,2.3952875E4,0E0,0E0,0E0,0E0,0E0,0E0,0E0,0E0],"parents":[2147483647,0,0,1,1,2,2,3,3,4,4,5,5,6,6],"right_children":[2,4,6,8,10,12,14,-1,-1,-1,-1,-1,-1,-1,-1],"split_conditions":[3.9907434E2,3.459226E2,4.5897202E2,2.900597E2,3.73512E2,4.2575238E2,5.22765E2,-1.0511597E1,-4.7547884E0,-2.5182524E0,-8.675933E-1,6.5902907E-1,2.4824069E0,5.1372046E0,1.0582693E1],"split_indices":[0,0,0,0,0,0,0,0,0,0,0,0,0,0,0],"split_type":[0,0,0,0,0,0,0,0,0,0,0,0,0,0,0],"sum_hessian":[1E3,4.84E2,5.16E2,1.25E2,3.59E2,4.01E2,1.15E2,8E0,1.17E2,1.72E2,1.87E2,2.18E2,1.83E2,1.06E2,9E0],"tree_param":{"num_deleted":"0","num_feature":"4","num_nodes":"15","size_leaf_vector":"1"}},{"base_weights":[1.9652344E-2,-1.9221588E1,2.6682468E1,-4.4309208E1,-1.0486336E1,1.8147661E1,5.3812374E1,-9.577232E0,-4.0735426E0,-2.1595547E0,-4.2769662E-1,1.1514103E0,2.7805316E0,4.8551784E0,9.630256E0],"categories":[],"categories_nodes":[],"categories_segments":[],"categories_sizes":[],"default_left":[0,0,0,0,0,0,0,0,0,0,0,0,0,0,0],"id":12,"left_children":[1,3,5,7,9,11,13,-1,-1,-1,-1,-1,-1,-1,-1],"loss_changes":[5.1405156E5,1.27078766E5,9.627384E4,2.3686344E4,2.9776496E4,2.0244594E4,1.7676688E4,0E0,0E0,0E0,0E0,0E0,0E0,0E0,0E0],"parents":[2147483647,0,0,1,1,2,2,3,3,4,4,5,5,6,6],"right_children":[2,4,6,8,10,12,14,-1,-1,-1,-1,-1,-1,-1,-1],"split_conditions":[4.10699E2,3.5051974E2,4.6645764E2,2.900597E2,1.0087586E3,1.0809999E3,5.22765E2,-9.577232E0,-4.0735426E0,-2.1595547E0,-4.2769662E-1,1.1514103E0,2.7805316E0,4.8551784E0,9.630256E0],"split_indices":[0,0,0,0,3,3,0,0,0,0,0,0,0,0,0],"split_type":[0,0,0,0,0,0,0,0,0,0,0,0,0,0,0],"sum_hessian":[1E3,5.81E2,4.19E2,1.49E2,4.32E2,3.2E2,9.9E1,8E0,1.41E2,1.54E2,2.78E2,1.91E2,1.29E2,9E1,9E0],"tree_param":{"num_deleted":"0","num_feature":"4","num_nodes":"15","size_leaf_vector":"1"}},{"base_weights":[1.9856913E-2,-2.366875E1,1.811992E1,-4.4098816E1,-1.6252731E1,8.5819025E0,4.039962E1,-8.7259245E0,-4.0056357E0,-2.1270964E0,-5.625722E-1,2.1680303E-1,1.8149073E0,3.587893E0,7.6581073E0],"categories":[],"categories_nodes":[],"categories_segments":[],"categories_sizes":[],"default_left":[0,0,0,0,0,0,0,0,0,0,0,0,0,0,0],"id":13,"left_children":[1,3,5,7,9,11,13,-1,-1,-1,-1,-1,-1,-1,-1],"loss_changes":[4.2962294E5,6.5038484E4,1.2035567E5,1.656925E4,1.6945555E4,2.4444334E4,2.5058438E4,0E0,0E0,0E0,0E0,0E0,0E0,0E0,0E0],"parents":[2147483647,0,0,1,1,2,2,3,3,4,4,5,5,6,6],"right_children":[2,4,6,8,10,12,14,-1,-1,-1,-1,-1,-1,-1,-1],"split_conditions":[3.9278198E2,3.4208176E2,4.467839E2,2.900597E2,1.0924395E3,1.0712739E3,5.0765912E2,-8.7259245E0,-4.0056357E0,-2.1270964E0,-5.625722E-1,2.1680303E-1,1.8149073E0,3.587893E0,7.6581073E0],"split_indices":[0,0,0,0,3,3,0,0,0,0,0,0,0,0,0],"split_type":[0,0,0,0,0,0,0,0,0,0,0,0,0,0,0],"sum_hessian":[1E3,4.33E2,5.67E2,1.14E2,3.19E2,3.98E2,1.69E2,8E0,1.06E2,2.16E2,1.03E2,2.39E2,1.59E2,1.52E2,1.7E1],"tree_param":{"num_deleted":"0","num_feature":"4","num_nodes":"15","size_leaf_vector":"1"}},{"base_weights":[1.5726095E-2,-2.04952E1,1.7008324E1,-4.3029663E1,-1.4805277E1,7.0214E0,3.42145E1,-9.44413E0,-3.9580376E0,-2.1687226E0,-7.727466E-1,3.9252433E-1,2.0699263E0,2.7401783E0,5.4788613E0],"categories":[],"categories_nodes":[],"categories_segments":[],"categories_sizes":[],"default_left":[0,0,0,0,0,0,0,0,0,0,0,0,0,0,0],"id":14,"left_children":[1,3,5,7,9,11,13,-1,-1,-1,-1,-1,-1,-1,-1],"loss_changes":[3.4923103E5,5.7574484E4,9.392634E4,1.2399328E4,1.7562531E4,1.4656135E4,2.6671969E4,0E0,0E0,0E0,0E0,0E0,0E0,0E0,0E0],"parents":[2147483647,0,0,1,1,2,2,3,3,4,4,5,5,6,6],"right_children":[2,4,6,8,10,12,14,-1,-1,-1,-1,-1,-1,-1,-1],"split_conditions":[3.962777E2,3.3550195E2,4.4067587E2,2.764178E2,3.712181E2,1.1404017E3,4.8761353E2,-9.44413E0,-3.9580376E0,-2.1687226E0,-7.727466E-1,3.9252433E-1,2.0699263E0,2.7401783E0,5.4788613E0],"split_indices":[0,0,0,0,0,3,0,0,0,0,0,0,0,0,0],"split_type":[0,0,0,0,0,0,0,0,0,0,0,0,0,0,0],"sum_hessian":[1E3,4.53E2,5.47E2,9E1,3.63E2,3.47E2,2E2,4E0,8.6E1,1.83E2,1.8E2,2.84E2,6.3E1,1.52E2,4.8E1],"tree_param":{"num_deleted":"0","num_feature":"4","num_nodes":"15","size_leaf_vector":"1"}},{"base_weights":[8.482484E-3,-1.3503512E1,2.1390844E1,-2.751012E1,-4.317734E0,1.5417411E1,4.282544E1,-5.6552677E0,-2.4069145E0,-6.213906E-1,1.4117234E0,6.4300805E-1,2.0035582E0,3.8819377E0,8.843435E0],"categories":[],"categories_nodes":[],"categories_segments":[],"categories_sizes":[],"default_left":[0,0,0,0,0,0,0,0,0,0,0,0,0,0,0],"id":15,"left_children":[1,3,5,7,9,11,13,-1,-1,-1,-1,-1,-1,-1,-1],"loss_changes":[2.8949612E5,7.887943E4,4.901853E4,2.2922984E4,1.3091307E4,1.2530203E4,1.1914859E4,0E0,0E0,0E0,0E0,0E0,0E0,0E0,0E0],"parents":[2147483647,0,0,1,1,2,2,3,3,4,4,5,5,6,6],"right_children":[2,4,6,8,10,12,14,-1,-1,-1,-1,-1,-1,-1,-1],"split_conditions":[4.1399844E2,3.661804E2,4.725572E2,3.0663675E2,1.1846226E3,1.0048841E3,5.2866797E2,-5.6552677E0,-2.4069145E0,-6.213906E-1,1.4117234E0,6.4300805E-1,2.0035582E0,3.8819377E0,8.843435E0],"split_indices":[0,0,0,0,3,3,0,0,0,0,0,0,0,0,0],"split_type":[0,0,0,0,0,0,0,0,0,0,0,0,0,0,0],"sum_hessian":[1E3,6.13E2,3.87E2,2.42E2,3.71E2,3.04E2,8.3E1,2.4E1,2.18E2,3.37E2,3.4E1,1.04E2,2E2,7.8E1,5E0],"tree_param":{"num_deleted":"0","num_feature":"4","num_nodes":"15","size_leaf_vector":"1"}},{"base_weights":[1.5728839E-2,-1.7826994E1,1.3211882E1,-3.7309338E1,-1.335305E1,4.6679254E0,2.7325304E1,-8.236176E0,-3.3808389E0,-2.0776787E0,-7.3528856E-1,-2.6089218E-1,9.8780966E-1,2.2726743E0,4.8388877E0],"categories":[],"categories_nodes":[],"categories_segments":[],"categories_sizes":[],"default_left":[0,0,0,0,0,0,0,0,0,0,0,0,0,0,0],"id":16,"left_children":[1,3,5,7,9,11,13,-1,-1,-1,-1,-1,-1,-1,-1],"loss_changes":[2.3592628E5,3.6633203E4,6.932911E4,9.675852E3,1.5348418E4,1.3674674E4,1.9919344E4,0E0,0E0,0E0,0E0,0E0,0E0,0E0,0E0],"parents":[2147483647,0,0,1,1,2,2,3,3,4,4,5,5,6,6],"right_children":[2,4,6,8,10,12,14,-1,-1,-1,-1,-1,-1,-1,-1],"split_conditions":[3.9115265E2,3.3103403E2,4.3776956E2,2.764178E2,1.0340637E3,1.0251471E3,4.9233185E2,-8.236176E0,-3.3808389E0,-2.0776787E0,-7.3528856E-1,-2.6089218E-1,9.8780966E-1,2.2726743E0,4.8388877E0],"split_indices":[0,0,0,0,3,3,0,0,0,0,0,0,0,0,0],"split_type":[0,0,0,0,0,0,0,0,0,0,0,0,0,0,0],"sum_hessian":[1E3,4.25E2,5.75E2,7.8E1,3.47E2,3.59E2,2.16E2,4E0,7.4E1,1.54E2,1.93E2,1.5E2,2.09E2,1.79E2,3.7E1],"tree_param":{"num_deleted":"0","num_feature":"4","num_nodes":"15","size_leaf_vector":"1"}},{"base_weights":[7.5705545E-3,-1.1089361E1,1.756816E1,-2.1557842E1,-2.6452174E0,1.2621971E1,3.531839E1,-3.9570038E0,-1.7654127E0,-4.7157294E-1,1.1813582E0,8.318882E-1,1.9962839E0,3.1703165E0,7.703247E0],"categories":[],"categories_nodes":[],"categories_segments":[],"categories_sizes":[],"default_left":[0,0,0,0,0,0,0,0,0,0,0,0,0,0,0],"id":17,"left_children":[1,3,5,7,9,11,13,-1,-1,-1,-1,-1,-1,-1,-1],"loss_changes":[1.9525833E5,5.4218953E4,3.3619055E4,1.8567594E4,1.0264268E4,9.468398E3,1.0225531E4,0E0,0E0,0E0,0E0,0E0,0E0,0E0,0E0],"parents":[2147483647,0,0,1,1,2,2,3,3,4,4,5,5,6,6],"right_children":[2,4,6,8,10,12,14,-1,-1,-1,-1,-1,-1,-1,-1],"split_conditions":[4.1399844E2,3.712181E2,4.725572E2,3.2216855E2,1.1616833E3,1.0863115E3,5.2866797E2,-3.9570038E0,-1.7654127E0,-4.7157294E-1,1.1813582E0,8.318882E-1,1.9962839E0,3.1703165E0,7.703247E0],"split_indices":[0,0,0,0,3,3,0,0,0,0,0,0,0,0,0],"split_type":[0,0,0,0,0,0,0,0,0,0,0,0,0,0,0],"sum_hessian":[1E3,6.13E2,3.87E2,2.73E2,3.4E2,3.04E2,8.3E1,4.7E1,2.26E2,2.98E2,4.2E1,1.93E2,1.11E2,7.8E1,5E0],"tree_param":{"num_deleted":"0","num_feature":"4","num_nodes":"15","size_leaf_vector":"1"}},{"base_weights":[1.54917715E-2,-1.1687767E1,1.363977E1,-2.5093826E1,-6.5016212E0,8.514615E0,2.8897652E1,-7.2607164E0,-2.329478E0,-1.3851637E0,-1.646732E-1,2.787182E-1,1.3663462E0,2.6382425E0,7.06131E0],"categories":[],"categories_nodes":[],"categories_segments":[],"categories_sizes":[],"default_left":[0,0,0,0,0,0,0,0,0,0,0,0,0,0,0],"id":18,"left_children":[1,3,5,7,9,11,13,-1,-1,-1,-1,-1,-1,-1,-1],"loss_changes":[1.5976731E5,3.7311242E4,3.5960086E4,1.1130422E4,1.3893756E4,1.0224324E4,1.0308227E4,0E0,0E0,0E0,0E0,0E0,0E0,0E0,0E0],"parents":[2147483647,0,0,1,1,2,2,3,3,4,4,5,5,6,6],"right_children":[2,4,6,8,10,12,14,-1,-1,-1,-1,-1,-1,-1,-1],"split_conditions":[4.0546973E2,3.5051974E2,4.5897202E2,2.764178E2,1.0177972E3,1.0422556E3,5.2866797E2,-7.2607164E0,-2.329478E0,-1.3851637E0,-1.646732E-1,2.787182E-1,1.3663462E0,2.6382425E0,7.06131E0],"split_indices":[0,0,0,0,3,3,0,0,0,0,0,0,0,0,0],"split_type":[0,0,0,0,0,0,0,0,0,0,0,0,0,0,0],"sum_hessian":[1E3,5.38E2,4.62E2,1.49E2,3.89E2,3.47E2,1.15E2,4E0,1.45E2,1.54E2,2.35E2,1.65E2,1.82E2,1.1E2,5E0],"tree_param":{"num_deleted":"0","num_feature":"4","num_nodes":"15","size_leaf_vector":"1"}},{"base_weights":[1.4157961E-2,-8.6918545E0,1.52079E1,-1.7760197E1,-1.8418068E0,1.1031994E1,2.9045969E1,-4.0277095E0,-1.5437467E0,-1.4917415E0,-8.996526E-3,8.4375805E-1,2.0101888E0,1.8778031E0,4.04121E0],"categories":[],"categories_nodes":[],"categories_segments":[],"categories_sizes":[],"default_left":[0,0,0,0,0,0,0,0,0,0,0,0,0,0,0],"id":19,"left_children":[1,3,5,7,9,11,13,-1,-1,-1,-1,-1,-1,-1,-1],"loss_changes":[1.3254138E5,3.9536824E4,2.0771633E4,1.3708609E4,8.336586E3,6.4661445E3,9.0445E3,0E0,0E0,0E0,0E0,0E0,0E0,0E0,0E0],"parents":[2147483647,0,0,1,1,2,2,3,3,4,4,5,5,6,6],"right_children":[2,4,6,8,10,12,14,-1,-1,-1,-1,-1,-1,-1,-1],"split_conditions":[4.1672284E2,3.712181E2,4.725572E2,3.0663675E2,9.2064923E2,1.1404017E3,1.0546002E3,-4.0277095E0,-1.5437467E0,-1.4917415E0,-8.996526E-3,8.4375805E-1,2.0101888E0,1.8778031E0,4.04121E0],"split_indices":[0,0,0,0,3,3,3,0,0,0,0,0,0,0,0],"split_type":[0,0,0,0,0,0,0,0,0,0,0,0,0,0,0],"sum_hessian":[1E3,6.36E2,3.64E2,2.73E2,3.63E2,2.81E2,8.3E1,2.4E1,2.49E2,4.2E1,3.21E2,2.2E2,6.1E1,4.5E1,3.8E1],"tree_param":{"num_deleted":"0","num_feature":"4","num_nodes":"15","size_leaf_vector":"1"}},{"base_weights":[1.4440881E-2,-1.2132643E1,8.998197E0,-2.8490772E1,-9.425231E0,4.335367E0,2.1635073E1,-6.3576407E0,-2.4849362E0,-1.5732485E0,-4.2522153E-1,2.2433601E-1,1.5790802E0,1.8898367E0,4.784772E0],"categories":[],"categories_nodes":[],"categories_segments":[],"categories_sizes":[],"default_left":[0,0,0,0,0,0,0,0,0,0,0,0,0,0,0],"id":20,"left_children":[1,3,5,7,9,11,13,-1,-1,-1,-1,-1,-1,-1,-1],"loss_changes":[1.0934473E5,1.8598238E4,3.3846195E4,6.08584E3,1.19074E4,1.0077745E4,1.0214883E4,0E0,0E0,0E0,0E0,0E0,0E0,0E0,0E0],"parents":[2147483647,0,0,1,1,2,2,3,3,4,4,5,5,6,6],"right_children":[2,4,6,8,10,12,14,-1,-1,-1,-1,-1,-1,-1,-1],"split_conditions":[3.9115265E2,3.260739E2,4.5031464E2,2.764178E2,1.0340637E3,1.1616833E3,5.1353467E2,-6.3576407E0,-2.4849362E0,-1.5732485E0,-4.2522153E-1,2.2433601E-1,1.5790802E0,1.8898367E0,4.784772E0],"split_indices":[0,0,0,0,3,3,0,0,0,0,0,0,0,0,0],"split_type":[0,0,0,0,0,0,0,0,0,0,0,0,0,0,0],"sum_hessian":[1E3,4.25E2,5.75E2,5.9E1,3.66E2,4.21E2,1.54E2,4E0,5.5E1,1.64E2,2.02E2,3.57E2,6.4E1,1.41E2,1.3E1],"tree_param":{"num_deleted":"0","num_feature":"4","num_nodes":"15","size_leaf_vector":"1"}},{"base_weights":[1.06167635E-2,-6.6662874E0,1.3607189E1,-1.4307675E1,-8.6297435E-1,1.1691466E1,3.5556736E1,-4.2515683E0,-1.293713E0,-2.411212E-1,1.0819592E0,5.7952493E-1,1.543262E0,2.221749E0,5.172684E0],"categories":[],"categories_nodes":[],"categories_segments":[],"categories_sizes":[],"default_left":[0,0,0,0,0,0,0,0,0,0,0,0,0,0,0],"id":21,"left_children":[1,3,5,7,9,11,13,-1,-1,-1,-1,-1,-1,-1,-1],"loss_changes":[9.09645E4,2.9787744E4,1.3460547E4,1.0661469E4,6.9535586E3,6.638453E3,4.458879E3,0E0,0E0,0E0,0E0,0E0,0E0,0E0,0E0],"parents":[2147483647,0,0,1,1,2,2,3,3,4,4,5,5,6,6],"right_children":[2,4,6,8,10,12,14,-1,-1,-1,-1,-1,-1,-1,-1],"split_conditions":[4.214809E2,3.7275406E2,4.9823627E2,2.966279E2,1.1616833E3,1.0251471E3,1.0758661E3,-4.2515683E0,-1.293713E0,-2.411212E-1,1.0819592E0,5.7952493E-1,1.543262E0,2.221749E0,5.172684E0],"split_indices":[0,0,0,0,3,3,3,0,0,0,0,0,0,0,0],"split_type":[0,0,0,0,0,0,0,0,0,0,0,0,0,0,0],"sum_hessian":[1E3,6.71E2,3.29E2,2.89E2,3.82E2,3.04E2,2.5E1,1.2E1,2.77E2,3.38E2,4.4E1,1.19E2,1.85E2,1.5E1,1E1],"tree_param":{"num_deleted":"0","num_feature":"4","num_nodes":"15","size_leaf_vector":"1"}},{"base_weights":[1.43819805E-2,-1.1484672E1,6.462427E0,-2.3925364E1,-8.966644E0,1.7200631E0,1.574254E1,-5.5089E0,-2.0715656E0,-1.2704909E0,-1.0934555E-1,-1.015905E0,3.2200035E-1,1.42353E0,4.55189E0],"categories":[],"categories_nodes":[],"categories_segments":[],"categories_sizes":[],"default_left":[0,0,0,0,0,0,0,0,0,0,0,0,0,0,0],"id":22,"left_children":[1,3,5,7,9,11,13,-1,-1,-1,-1,-1,-1,-1,-1],"loss_changes":[7.429478E4,1.1062824E4,2.8227135E4,4.8603633E3,8.845154E3,7.623163E3,9.091012E3,0E0,0E0,0E0,0E0,0E0,0E0,0E0,0E0],"parents":[2147483647,0,0,1,1,2,2,3,3,4,4,5,5,6,6],"right_children":[2,4,6,8,10,12,14,-1,-1,-1,-1,-1,-1,-1,-1],"split_conditions":[3.818194E2,3.260739E2,4.3776956E2,2.764178E2,1.0924395E3,9.167223E2,5.22765E2,-5.5089E0,-2.0715656E0,-1.2704909E0,-1.0934555E-1,-1.015905E0,3.2200035E-1,1.42353E0,4.55189E0],"split_indices":[0,0,0,0,3,3,0,0,0,0,0,0,0,0,0],"split_type":[0,0,0,0,0,0,0,0,0,0,0,0,0,0,0],"sum_hessian":[1E3,3.59E2,6.41E2,5.9E1,3E2,4.25E2,2.16E2,4E0,5.5E1,2.03E2,9.7E1,4.7E1,3.78E2,2.07E2,9E0],"tree_param":{"num_deleted":"0","num_feature":"4","num_nodes":"15","size_leaf_vector":"1"}},{"base_weights":[9.258442E-3,-5.9242826E0,1.0364482E1,-1.6155964E1,-2.767159E0,8.111858E0,2.4726055E1,-2.016121E0,-5.376734E-1,-6.5632653E-1,2.2474606E-1,4.8239326E-1,1.3541988E0,1.6607859E0,3.903043E0],"categories":[],"categories_nodes":[],"categories_segments":[],"categories_sizes":[],"default_left":[0,0,0,0,0,0,0,0,0,0,0,0,0,0,0],"id":23,"left_children":[1,3,5,7,9,11,13,-1,-1,-1,-1,-1,-1,-1,-1],"loss_changes":[6.156599E4,2.0532105E4,1.1607613E4,6.367617E3,9.304332E3,5.5943477E3,5.041951E3,0E0,0E0,0E0,0E0,0E0,0E0,0E0,0E0],"parents":[2147483647,0,0,1,1,2,2,3,3,4,4,5,5,6,6],"right_children":[2,4,6,8,10,12,14,-1,-1,-1,-1,-1,-1,-1,-1],"split_conditions":[4.1672284E2,3.5051974E2,4.8761353E2,1.1165416E3,1.0649364E3,1.0928186E3,1.0758661E3,-2.016121E0,-5.376734E-1,-6.5632653E-1,2.2474606E-1,4.8239326E-1,1.3541988E0,1.6607859E0,3.903043E0],"split_indices":[0,0,0,3,3,3,3,0,0,0,0,0,0,0,0],"split_type":[0,0,0,0,0,0,0,0,0,0,0,0,0,0,0],"sum_hessian":[1E3,6.36E2,3.64E2,1.49E2,4.87E2,3.16E2,4.8E1,1.08E2,4.1E1,2.77E2,2.1E2,1.98E2,1.18E2,3.2E1,1.6E1],"tree_param":{"num_deleted":"0","num_feature":"4","num_nodes":"15","size_leaf_vector":"1"}},{"base_weights":[1.2729824E-2,-9.062749E0,5.6518416E0,-2.2318926E1,-7.325698E0,2.5895364E0,1.5446102E1,-4.906898E0,-1.8417196E0,-1.2981938E0,-3.3692655E-1,-5.8525157E-1,4.2756602E-1,1.3957208E0,4.8108907E0],"categories":[],"categories_nodes":[],"categories_segments":[],"categories_sizes":[],"default_left":[0,0,0,0,0,0,0,0,0,0,0,0,0,0,0],"id":24,"left_children":[1,3,5,7,9,11,13,-1,-1,-1,-1,-1,-1,-1,-1],"loss_changes":[5.128004E4,8.678738E3,1.8495688E4,3.6886328E3,7.58734E3,6.743633E3,6.4773555E3,0E0,0E0,0E0,0E0,0E0,0E0,0E0,0E0],"parents":[2147483647,0,0,1,1,2,2,3,3,4,4,5,5,6,6],"right_children":[2,4,6,8,10,12,14,-1,-1,-1,-1,-1,-1,-1,-1],"split_conditions":[3.8594498E2,3.1967767E2,4.5245047E2,2.764178E2,1.0220007E3,9.3859534E2,5.2866797E2,-4.906898E0,-1.8417196E0,-1.2981938E0,-3.3692655E-1,-5.8525157E-1,4.2756602E-1,1.3957208E0,4.8108907E0],"split_indices":[0,0,0,0,3,3,0,0,0,0,0,0,0,0,0],"split_type":[0,0,0,0,0,0,0,0,0,0,0,0,0,0,0],"sum_hessian":[1E3,3.83E2,6.17E2,4.3E1,3.4E2,4.71E2,1.46E2,4E0,3.9E1,1.39E2,2.01E2,7.8E1,3.93E2,1.41E2,5E0],"tree_param":{"num_deleted":"0","num_feature":"4","num_nodes":"15","size_leaf_vector":"1"}},{"base_weights":[9.118689E-3,-4.273739E0,1.0078816E1,-1.3453266E1,-1.7805929E0,8.965811E0,3.2096027E1,-4.5143447E0,-1.227584E0,-3.4206006E-1,6.079242E-1,9.804961E-2,1.094914E0,1.4176649E0,5.362575E0],"categories":[],"categories_nodes":[],"categories_segments":[],"categories_sizes":[],"default_left":[0,0,0,0,0,0,0,0,0,0,0,0,0,0,0],"id":25,"left_children":[1,3,5,7,9,11,13,-1,-1,-1,-1,-1,-1,-1,-1],"loss_changes":[4.321328E4,1.6064831E4,7.0393164E3,5.042752E3,7.1619604E3,4.518791E3,4.640956E3,0E0,0E0,0E0,0E0,0E0,0E0,0E0,0E0],"parents":[2147483647,0,0,1,1,2,2,3,3,4,4,5,5,6,6],"right_children":[2,4,6,8,10,12,14,-1,-1,-1,-1,-1,-1,-1,-1],"split_conditions":[4.2575238E2,3.5051974E2,5.1353467E2,2.764178E2,1.1372197E3,9.618932E2,1.0658053E3,-4.5143447E0,-1.227584E0,-3.4206006E-1,6.079242E-1,9.804961E-2,1.094914E0,1.4176649E0,5.362575E0],"split_indices":[0,0,0,0,3,3,3,0,0,0,0,0,0,0,0],"split_type":[0,0,0,0,0,0,0,0,0,0,0,0,0,0,0],"sum_hessian":[1E3,7.02E2,2.98E2,1.49E2,5.53E2,2.85E2,1.3E1,4E0,1.45E2,4.58E2,9.5E1,5.7E1,2.28E2,8E0,5E0],"tree_param":{"num_deleted":"0","num_feature":"4","num_nodes":"15","size_leaf_vector":"1"}},{"base_weights":[1.0684628E-2,-6.571905E0,5.4641247E0,-1.3683017E1,-4.1473475E0,3.175073E0,1.4346726E1,-4.1531973E0,-1.2305288E0,-6.930566E-1,1.5803708E-1,-8.292304E-1,4.2879868E-1,6.792698E-1,2.0114262E0],"categories":[],"categories_nodes":[],"categories_segments":[],"categories_sizes":[],"default_left":[0,0,0,0,0,0,0,0,0,0,0,0,0,0,0],"id":26,"left_children":[1,3,5,7,9,11,13,-1,-1,-1,-1,-1,-1,-1,-1],"loss_changes":[3.5969566E4,7.7708027E3,1.1096785E4,3.901289E3,5.431061E3,5.6126396E3,4.743E3,0E0,0E0,0E0,0E0,0E0,0E0,0E0,0E0],"parents":[2147483647,0,0,1,1,2,2,3,3,4,4,5,5,6,6],"right_children":[2,4,6,8,10,12,14,-1,-1,-1,-1,-1,-1,-1,-1],"split_conditions":[3.962777E2,3.4208176E2,4.600607E2,2.764178E2,1.0924395E3,9.102882E2,1.0286543E3,-4.1531973E0,-1.2305288E0,-6.930566E-1,1.5803708E-1,-8.292304E-1,4.2879868E-1,6.792698E-1,2.0114262E0],"split_indices":[0,0,0,0,3,3,3,0,0,0,0,0,0,0,0],"split_type":[0,0,0,0,0,0,0,0,0,0,0,0,0,0,0],"sum_hessian":[1E3,4.53E2,5.47E2,1.14E2,3.39E2,4.36E2,1.11E2,4E0,1.1E2,2.28E2,1.11E2,3.8E1,3.98E2,4.9E1,6.2E1],"tree_param":{"num_deleted":"0","num_feature":"4","num_nodes":"15","size_leaf_vector":"1"}},{"base_weights":[5.9860796E-3,-7.3375816E0,4.0528965E0,3.8111587E0,-8.800787E0,8.3739686E-1,9.635598E0,-2.0593236E-1,1.1025918E0,-3.4281967E0,-8.110364E-1,-3.645424E-1,3.594124E-1,8.8184005E-1,3.949176E0],"categories":[],"categories_nodes":[],"categories_segments":[],"categories_sizes":[],"default_left":[0,0,0,0,0,0,0,0,0,0,0,0,0,0,0],"id":27,"left_children":[1,3,5,7,9,11,13,-1,-1,-1,-1,-1,-1,-1,-1],"loss_changes":[2.9778219E4,5.8409297E3,1.158839E4,1.8015786E3,5.2636914E3,5.0922046E3,5.4097617E3,0E0,0E0,0E0,0E0,0E0,0E0,0E0,0E0],"parents":[2147483647,0,0,1,1,2,2,3,3,4,4,5,5,6,6],"right_children":[2,4,6,8,10,12,14,-1,-1,-1,-1,-1,-1,-1,-1],"split_conditions":[3.8074588E2,3.888542E3,4.345072E2,1.0507991E2,2.900597E2,9.702437E1,5.2866797E2,-2.0593236E-1,1.1025918E0,-3.4281967E0,-8.110364E-1,-3.645424E-1,3.594124E-1,8.8184005E-1,3.949176E0],"split_indices":[0,2,0,1,0,1,0,0,0,0,0,0,0,0,0],"split_type":[0,0,0,0,0,0,0,0,0,0,0,0,0,0,0],"sum_hessian":[1E3,3.55E2,6.45E2,4.1E1,3.14E2,4.1E2,2.35E2,2.3E1,1.8E1,7E0,3.07E2,1.56E2,2.54E2,2.3E2,5E0],"tree_param":{"num_deleted":"0","num_feature":"4","num_nodes":"15","size_leaf_vector":"1"}},{"base_weights":[6.8674004E-3,-4.535623E0,5.4678245E0,-1.15401745E1,-2.6648169E0,3.9722555E0,1.584088E1,-1.752688E0,-6.665372E-1,-3.9133844E-1,6.7639303E-1,2.2497292E-1,1.09211E0,1.3596824E0,5.1701617E0],"categories":[],"categories_nodes":[],"categories_segments":[],"categories_sizes":[],"default_left":[0,0,0,0,0,0,0,0,0,0,0,0,0,0,0],"id":28,"left_children":[1,3,5,7,9,11,13,-1,-1,-1,-1,-1,-1,-1,-1],"loss_changes":[2.4855953E4,7.1372227E3,6.9957725E3,3.239337E3,5.1239307E3,4.751286E3,3.8840127E3,0E0,0E0,0E0,0E0,0E0,0E0,0E0,0E0],"parents":[2147483647,0,0,1,1,2,2,3,3,4,4,5,5,6,6],"right_children":[2,4,6,8,10,12,14,-1,-1,-1,-1,-1,-1,-1,-1],"split_conditions":[4.064052E2,3.4208176E2,4.814308E2,1.0422556E3,1.1616833E3,1.1509471E3,1.16073456E2,-1.752688E0,-6.665372E-1,-3.9133844E-1,6.7639303E-1,2.2497292E-1,1.09211E0,1.3596824E0,5.1701617E0],"split_indices":[0,0,0,3,3,3,1,0,0,0,0,0,0,0,0],"split_type":[0,0,0,0,0,0,0,0,0,0,0,0,0,0,0],"sum_hessian":[1E3,5.46E2,4.54E2,1.14E2,4.32E2,3.98E2,5.6E1,5E1,6.4E1,3.82E2,5E1,3.2E2,7.8E1,5.4E1,2E0],"tree_param":{"num_deleted":"0","num_feature":"4","num_nodes":"15","size_leaf_vector":"1"}},{"base_weights":[1.1889661E-2,-2.9582329E0,6.9951143E0,5.693974E0,-4.319505E0,6.4113736E0,3.4432556E1,2.8950366E-1,1.120138E0,-1.1266456E0,-2.5881517E-1,2.753739E-1,9.585528E-1,1.5918335E0,6.350183E0],"categories":[],"categories_nodes":[],"categories_segments":[],"categories_sizes":[],"default_left":[0,0,0,0,0,0,0,0,0,0,0,0,0,0,0],"id":29,"left_children":[1,3,5,7,9,11,13,-1,-1,-1,-1,-1,-1,-1,-1],"loss_changes":[2.0782467E4,8.304537E3,4.568128E3,1.4474006E3,7.2836377E3,3.386913E3,2.2183271E3,0E0,0E0,0E0,0E0,0E0,0E0,0E0,0E0],"parents":[2147483647,0,0,1,1,2,2,3,3,4,4,5,5,6,6],"right_children":[2,4,6,8,10,12,14,-1,-1,-1,-1,-1,-1,-1,-1],"split_conditions":[4.2575238E2,3.910367E3,5.2866797E2,1.0507991E2,3.4867422E2,1.0422556E3,1.13757065E2,2.8950366E-1,1.120138E0,-1.1266456E0,-2.5881517E-1,2.753739E-1,9.585528E-1,1.5918335E0,6.350183E0],"split_indices":[0,2,0,1,0,3,1,0,0,0,0,0,0,0,0],"split_type":[0,0,0,0,0,0,0,0,0,0,0,0,0,0,0],"sum_hessian":[1E3,7.02E2,2.98E2,9.5E1,6.07E2,2.93E2,5E0,6.4E1,3.1E1,1.2E2,4.87E2,1.37E2,1.56E2,4E0,1E0],"tree_param":{"num_deleted":"0","num_feature":"4","num_nodes":"15","size_leaf_vector":"1"}},{"base_weights":[1.9887095E-2,-5.6208873E0,3.1283946E0,-8.304454E0,-2.740036E-1,1.2675526E0,9.014884E0,-1.6306123E0,-6.497396E-1,-3.5555434E-1,6.135684E-1,-7.74547E-2,6.459176E-1,3.4086347E-1,1.3591694E0],"categories":[],"categories_nodes":[],"categories_segments":[],"categories_sizes":[],"default_left":[0,0,0,0,0,0,0,0,0,0,0,0,0,0,0],"id":30,"left_children":[1,3,5,7,9,11,13,-1,-1,-1,-1,-1,-1,-1,-1],"loss_changes":[1.7569508E4,5.105868E3,7.064745E3,3.3209482E3,2.5458535E3,5.221094E3,3.9307754E3,0E0,0E0,0E0,0E0,0E0,0E0,0E0,0E0],"parents":[2147483647,0,0,1,1,2,2,3,3,4,4,5,5,6,6],"right_children":[2,4,6,8,10,12,14,-1,-1,-1,-1,-1,-1,-1,-1],"split_conditions":[3.8074588E2,1.0924395E3,4.5031464E2,3.2962442E2,1.055249E2,1.0593557E2,1.0305731E3,-1.6306123E0,-6.497396E-1,-3.5555434E-1,6.135684E-1,-7.74547E-2,6.459176E-1,3.4086347E-1,1.3591694E0],"split_indices":[0,3,0,0,1,1,3,0,0,0,0,0,0,0,0],"split_type":[0,0,0,0,0,0,0,0,0,0,0,0,0,0,0],"sum_hessian":[1E3,3.55E2,6.45E2,2.36E2,1.19E2,4.91E2,1.54E2,4.2E1,1.94E2,7.9E1,4E1,3.53E2,1.38E2,7E1,8.4E1],"tree_param":{"num_deleted":"0","num_feature":"4","num_nodes":"15","size_leaf_vector":"1"}},{"base_weights":[1.8150855E-2,-3.0992093E0,4.6324162E0,-7.326109E0,-4.747252E-1,3.8867812E0,2.0406216E1,-2.0603612E-1,-1.0658903E0,-2.7456018E-1,4.0525433E-1,6.271433E-1,-4.1296694E-2,1.458927E0,5.9647155E0],"categories":[],"categories_nodes":[],"categories_segments":[],"categories_sizes":[],"default_left":[0,0,0,0,0,0,0,0,0,0,0,0,0,0,0],"id":31,"left_children":[1,3,5,7,9,11,13,-1,-1,-1,-1,-1,-1,-1,-1],"loss_changes":[1.4413068E4,6.630394E3,4.672332E3,3.9969082E3,3.8150483E3,3.9706553E3,3.2385156E3,0E0,0E0,0E0,0E0,0E0,0E0,0E0,0E0],"parents":[2147483647,0,0,1,1,2,2,3,3,4,4,5,5,6,6],"right_children":[2,4,6,8,10,12,14,-1,-1,-1,-1,-1,-1,-1,-1],"split_conditions":[4.1219003E2,1.0177972E3,5.0765912E2,4.587002E3,1.0516178E2,5.425887E3,1.147753E2,-2.0603612E-1,-1.0658903E0,-2.7456018E-1,4.0525433E-1,6.271433E-1,-4.1296694E-2,1.458927E0,5.9647155E0],"split_indices":[0,3,0,2,1,2,1,0,0,0,0,0,0,0,0],"split_type":[0,0,0,0,0,0,0,0,0,0,0,0,0,0,0],"sum_hessian":[1E3,5.97E2,4.03E2,2.28E2,3.69E2,3.86E2,1.7E1,8.9E1,1.39E2,2.46E2,1.23E2,2.48E2,1.38E2,1.6E1,1E0],"tree_param":{"num_deleted":"0","num_feature":"4","num_nodes":"15","size_leaf_vector":"1"}},{"base_weights":[2.3180615E-2,-5.061476E0,2.5088105E0,-2.220998E1,-4.3422585E0,-1.2749726E0,4.8642106E0,-4.265561E0,-1.6951544E0,-6.224343E-1,2.2664349E-1,3.4164736E-1,-3.8365087E-1,4.102292E-1,1.7671589E0],"categories":[],"categories_nodes":[],"categories_segments":[],"categories_sizes":[],"default_left":[0,0,0,0,0,0,0,0,0,0,0,0,0,0,0],"id":32,"left_children":[1,3,5,7,9,11,13,-1,-1,-1,-1,-1,-1,-1,-1],"loss_changes":[1.2663911E4,3.9612832E3,6.004194E3,6.745781E2,3.9569917E3,3.12559E3,3.9771494E3,0E0,0E0,0E0,0E0,0E0,0E0,0E0,0E0],"parents":[2147483647,0,0,1,1,2,2,3,3,4,4,5,5,6,6],"right_children":[2,4,6,8,10,12,14,-1,-1,-1,-1,-1,-1,-1,-1],"split_conditions":[3.768291E2,2.966279E2,9.741204E1,9.6033575E2,1.1192858E3,4.686942E3,4.9233185E2,-4.265561E0,-1.6951544E0,-6.224343E-1,2.2664349E-1,3.4164736E-1,-3.8365087E-1,4.102292E-1,1.7671589E0],"split_indices":[0,0,1,3,3,2,0,0,0,0,0,0,0,0,0],"split_type":[0,0,0,0,0,0,0,0,0,0,0,0,0,0,0],"sum_hessian":[1E3,3.28E2,6.72E2,1.2E1,3.16E2,2.58E2,4.14E2,1E0,1.1E1,2.46E2,7E1,9.1E1,1.67E2,3.92E2,2.2E1],"tree_param":{"num_deleted":"0","num_feature":"4","num_nodes":"15","size_leaf_vector":"1"}},{"base_weights":[1.6640646E-2,-1.9435883E0,5.4963083E0,-2.7449868E0,8.465902E0,4.9420276E0,2.8506714E1,-6.0286224E-1,-2.0748194E-2,-2.7188537E-1,1.0815486E0,1.4835642E-1,7.566955E-1,1.1895581E0,5.578119E0],"categories":[],"categories_nodes":[],"categories_segments":[],"categories_sizes":[],"default_left":[0,0,0,0,0,0,0,0,0,0,0,0,0,0,0],"id":33,"left_children":[1,3,5,7,9,11,13,-1,-1,-1,-1,-1,-1,-1,-1],"loss_changes":[1.0762827E4,6.179745E3,3.2262354E3,5.714666E3,1.4222202E3,2.3400317E3,2.05481E3,0E0,0E0,0E0,0E0,0E0,0E0,0E0,0E0],"parents":[2147483647,0,0,1,1,2,2,3,3,4,4,5,5,6,6],"right_children":[2,4,6,8,10,12,14,-1,-1,-1,-1,-1,-1,-1,-1],"split_conditions":[4.3128336E2,1.1951001E3,5.2866797E2,9.944231E1,8.7053185E1,1.0305731E3,1.13757065E2,-6.0286224E-1,-2.0748194E-2,-2.7188537E-1,1.0815486E0,1.4835642E-1,7.566955E-1,1.1895581E0,5.578119E0],"split_indices":[0,3,0,1,1,3,1,0,0,0,0,0,0,0,0],"split_type":[0,0,0,0,0,0,0,0,0,0,0,0,0,0,0],"sum_hessian":[1E3,7.37E2,2.63E2,6.85E2,5.2E1,2.58E2,5E0,2.98E2,3.87E2,9E0,4.3E1,1.12E2,1.46E2,4E0,1E0],"tree_param":{"num_deleted":"0","num_feature":"4","num_nodes":"15","size_leaf_vector":"1"}},{"base_weights":[2.2827148E-2,-4.124446E0,2.308286E0,-1.8181763E1,-3.4094496E0,-7.067823E-2,5.6854324E0,-4.051245E0,-1.4254067E0,-8.443743E-1,-1.3651277E-1,3.1646132E-1,-2.412651E-1,4.9699393E-1,3.598108E0],"categories":[],"categories_nodes":[],"categories_segments":[],"categories_sizes":[],"default_left":[0,0,0,0,0,0,0,0,0,0,0,0,0,0,0],"id":34,"left_children":[1,3,5,7,9,11,13,-1,-1,-1,-1,-1,-1,-1,-1],"loss_changes":[9.497421E3,3.5161426E3,5.1904375E3,9.135713E2,3.4876565E3,2.8868816E3,5.608759E3,0E0,0E0,0E0,0E0,0E0,0E0,0E0,0E0],"parents":[2147483647,0,0,1,1,2,2,3,3,4,4,5,5,6,6],"right_children":[2,4,6,8,10,12,14,-1,-1,-1,-1,-1,-1,-1,-1],"split_conditions":[3.8074588E2,2.9874286E2,1.0712739E3,9.6033575E2,9.67732E1,4.809096E3,5.1353467E2,-4.051245E0,-1.4254067E0,-8.443743E-1,-1.3651277E-1,3.1646132E-1,-2.412651E-1,4.9699393E-1,3.598108E0],"split_indices":[0,0,3,3,1,2,0,0,0,0,0,0,0,0,0],"split_type":[0,0,0,0,0,0,0,0,0,0,0,0,0,0,0],"sum_hessian":[1E3,3.55E2,6.45E2,1.6E1,3.39E2,3.79E2,2.66E2,1E0,1.5E1,9.7E1,2.42E2,1.59E2,2.2E2,2.61E2,5E0],"tree_param":{"num_deleted":"0","num_feature":"4","num_nodes":"15","size_leaf_vector":"1"}},{"base_weights":[1.8267011E-2,8.162157E0,-9.5538044E-1,3.332405E0,1.0883156E1,-3.1421127E0,2.7269516E0,-7.8896946E-1,4.4555402E-1,8.8564646E-1,1.9603007E0,-8.5422176E-1,-1.4645407E-1,1.2967181E-1,1.0118964E0],"categories":[],"categories_nodes":[],"categories_segments":[],"categories_sizes":[],"default_left":[0,0,0,0,0,0,0,0,0,0,0,0,0,0,0],"id":35,"left_children":[1,3,5,7,9,11,13,-1,-1,-1,-1,-1,-1,-1,-1],"loss_changes":[7.945005E3,1.3699004E3,7.2153535E3,5.393102E2,1.0281133E3,5.0786836E3,3.5180269E3,0E0,0E0,0E0,0E0,0E0,0E0,0E0,0E0],"parents":[2147483647,0,0,1,1,2,2,3,3,4,4,5,5,6,6],"right_children":[2,4,6,8,10,12,14,-1,-1,-1,-1,-1,-1,-1,-1],"split_conditions":[3.796799E3,9.9685455E2,4.162042E2,3.3929056E2,4.5159222E2,9.7683685E2,1.11081825E2,-7.8896946E-1,4.4555402E-1,8.8564646E-1,1.9603007E0,-8.5422176E-1,-1.4645407E-1,1.2967181E-1,1.0118964E0],"split_indices":[2,3,0,0,0,3,1,0,0,0,0,0,0,0,0],"split_type":[0,0,0,0,0,0,0,0,0,0,0,0,0,0,0],"sum_hessian":[1E3,1.06E2,8.94E2,3.9E1,6.7E1,5.61E2,3.33E2,3E0,3.6E1,5.6E1,1.1E1,1.32E2,4.29E2,2.8E2,5.3E1],"tree_param":{"num_deleted":"0","num_feature":"4","num_nodes":"15","size_leaf_vector":"1"}},{"base_weights":[1.9107053E-2,-3.9743726E0,1.7748336E0,-2.1818922E1,-3.4221065E0,-7.0357537E0,2.5417883E0,-6.7164004E-1,-2.8250785E0,-4.9958044E-1,1.8731485E-1,-1.263925E0,-4.0488538E-1,8.71706E-2,6.2468374E-1],"categories":[],"categories_nodes":[],"categories_segments":[],"categories_sizes":[],"default_left":[0,0,0,0,0,0,0,0,0,0,0,0,0,0,0],"id":36,"left_children":[1,3,5,7,9,11,13,-1,-1,-1,-1,-1,-1,-1,-1],"loss_changes":[7.025524E3,2.9409448E3,4.7209795E3,6.844927E2,2.4926309E3,8.861023E2,3.960894E3,0E0,0E0,0E0,0E0,0E0,0E0,0E0,0E0],"parents":[2147483647,0,0,1,1,2,2,3,3,4,4,5,5,6,6],"right_children":[2,4,6,8,10,12,14,-1,-1,-1,-1,-1,-1,-1,-1],"split_conditions":[3.7419775E2,2.900597E2,9.023075E2,4.387763E3,1.1192858E3,9.662914E1,1.04966995E2,-6.7164004E-1,-2.8250785E0,-4.9958044E-1,1.8731485E-1,-1.263925E0,-4.0488538E-1,8.71706E-2,6.2468374E-1],"split_indices":[0,0,3,2,3,1,1,0,0,0,0,0,0,0,0],"split_type":[0,0,0,0,0,0,0,0,0,0,0,0,0,0,0],"sum_hessian":[1E3,3.05E2,6.95E2,8E0,2.97E2,5.5E1,6.4E2,3E0,5E0,2.29E2,6.8E1,1.8E1,3.7E1,4.42E2,1.98E2],"tree_param":{"num_deleted":"0","num_feature":"4","num_nodes":"15","size_leaf_vector":"1"}},{"base_weights":[1.2442819E-2,6.97685E0,-9.172093E-1,2.584958E0,9.4604025E0,-1.5707861E0,9.360019E0,-7.7469724E-1,3.8118255E-1,7.772864E-1,1.6910747E0,-4.1758648E-1,7.261696E-2,2.8175426E-1,1.1206169E0],"categories":[],"categories_nodes":[],"categories_segments":[],"categories_sizes":[],"default_left":[0,0,0,0,0,0,0,0,0,0,0,0,0,0,0],"id":37,"left_children":[1,3,5,7,9,11,13,-1,-1,-1,-1,-1,-1,-1,-1],"loss_changes":[6.48735E3,1.2626294E3,5.952493E3,5.8727014E2,8.1151074E2,4.981512E3,6.0858105E2,0E0,0E0,0E0,0E0,0E0,0E0,0E0,0E0],"parents":[2147483647,0,0,1,1,2,2,3,3,4,4,5,5,6,6],"right_children":[2,4,6,8,10,12,14,-1,-1,-1,-1,-1,-1,-1,-1],"split_conditions":[3.8623142E3,9.9685455E2,1.2143378E3,3.5051974E2,4.5159222E2,9.98469E1,9.298008E1,-7.7469724E-1,3.8118255E-1,7.772864E-1,1.6910747E0,-4.1758648E-1,7.261696E-2,2.8175426E-1,1.1206169E0],"split_indices":[2,3,3,0,0,1,1,0,0,0,0,0,0,0,0],"split_type":[0,0,0,0,0,0,0,0,0,0,0,0,0,0,0],"sum_hessian":[1E3,1.17E2,8.83E2,4.3E1,7.4E1,8.31E2,5.2E1,4E0,3.9E1,6.2E1,1.2E1,3.89E2,4.42E2,1.2E1,4E1],"tree_param":{"num_deleted":"0","num_feature":"4","num_nodes":"15","size_leaf_vector":"1"}},{"base_weights":[1.4327896E-2,-1.1311525E0,5.3169208E0,2.8442585E0,-2.539293E0,4.6436477E0,2.3843466E1,-5.265059E-2,4.677863E-1,-8.1672764E-1,-1.254582E-1,7.3244023E-1,1.909518E-1,8.476758E-1,5.03385E0],"categories":[],"categories_nodes":[],"categories_segments":[],"categories_sizes":[],"default_left":[0,0,0,0,0,0,0,0,0,0,0,0,0,0,0],"id":38,"left_children":[1,3,5,7,9,11,13,-1,-1,-1,-1,-1,-1,-1,-1],"loss_changes":[6.0861045E3,4.6199233E3,2.1095479E3,1.337483E3,4.3930264E3,1.254023E3,2.0161414E3,0E0,0E0,0E0,0E0,0E0,0E0,0E0,0E0],"parents":[2147483647,0,0,1,1,2,2,3,3,4,4,5,5,6,6],"right_children":[2,4,6,8,10,12,14,-1,-1,-1,-1,-1,-1,-1,-1],"split_conditions":[4.44082E2,4.375655E3,5.2866797E2,9.9061884E2,9.618932E2,5.104356E3,1.13757065E2,-5.265059E-2,4.677863E-1,-8.1672764E-1,-1.254582E-1,7.3244023E-1,1.909518E-1,8.476758E-1,5.03385E0],"split_indices":[0,2,0,3,3,2,1,0,0,0,0,0,0,0,0],"split_type":[0,0,0,0,0,0,0,0,0,0,0,0,0,0,0],"sum_hessian":[1E3,8.23E2,1.77E2,2.15E2,6.08E2,1.72E2,5E0,7.6E1,1.39E2,1.12E2,4.96E2,8.6E1,8.6E1,4E0,1E0],"tree_param":{"num_deleted":"0","num_feature":"4","num_nodes":"15","size_leaf_vector":"1"}},{"base_weights":[1.9187843E-2,-5.37346E0,1.0515268E0,-9.9508505E0,-1.74304E0,-6.7365317E0,1.7125582E0,-2.6412003E0,-8.8362116E-1,-4.8030183E-1,3.2901543E-1,-8.673555E-1,-1.4123536E-2,-3.111427E-1,2.7425167E-1],"categories":[],"categories_nodes":[],"categories_segments":[],"categories_sizes":[],"default_left":[0,0,0,0,0,0,0,0,0,0,0,0,0,0,0],"id":39,"left_children":[1,3,5,7,9,11,13,-1,-1,-1,-1,-1,-1,-1,-1],"loss_changes":[5.5782573E3,2.658129E3,4.3411313E3,1.0693438E3,1.4173359E3,8.419409E2,3.8640925E3,0E0,0E0,0E0,0E0,0E0,0E0,0E0,0E0],"parents":[2147483647,0,0,1,1,2,2,3,3,4,4,5,5,6,6],"right_children":[2,4,6,8,10,12,14,-1,-1,-1,-1,-1,-1,-1,-1],"split_conditions":[3.5253006E2,1.0422556E3,8.652874E1,2.764178E2,1.0409819E2,4.44082E2,9.4574225E2,-2.6412003E0,-8.8362116E-1,-4.8030183E-1,3.2901543E-1,-8.673555E-1,-1.4123536E-2,-3.111427E-1,2.7425167E-1],"split_indices":[0,3,1,0,1,0,3,0,0,0,0,0,0,0,0],"split_type":[0,0,0,0,0,0,0,0,0,0,0,0,0,0,0],"sum_hessian":[1E3,1.6E2,8.4E2,7E1,9E1,6.5E1,7.75E2,3E0,6.7E1,5.6E1,3.4E1,5E1,1.5E1,1.36E2,6.39E2],"tree_param":{"num_deleted":"0","num_feature":"4","num_nodes":"15","size_leaf_vector":"1"}},{"base_weights":[1.267763E-2,-1.9344965E0,2.4696927E0,-1.4647683E1,-1.5329151E0,1.8501791E0,1.2334576E1,-3.495453E0,-1.1193848E0,-2.7745277E-1,3.1121683E-1,3.5839596E-1,-1.4044254E-1,9.013203E-1,4.768445E0],"categories":[],"categories_nodes":[],"categories_segments":[],"categories_sizes":[],"default_left":[0,0,0,0,0,0,0,0,0,0,0,0,0,0,0],"id":40,"left_children":[1,3,5,7,9,11,13,-1,-1,-1,-1,-1,-1,-1,-1],"loss_changes":[4.7937983E3,2.8314531E3,2.6845422E3,8.010449E2,3.140329E3,2.363711E3,2.622873E3,0E0,0E0,0E0,0E0,0E0,0E0,0E0,0E0],"parents":[2147483647,0,0,1,1,2,2,3,3,4,4,5,5,6,6],"right_children":[2,4,6,8,10,12,14,-1,-1,-1,-1,-1,-1,-1,-1],"split_conditions":[4.0872888E2,2.9874286E2,4.9823627E2,9.6033575E2,1.1234637E3,5.457773E3,1.147753E2,-3.495453E0,-1.1193848E0,-2.7745277E-1,3.1121683E-1,3.5839596E-1,-1.4044254E-1,9.013203E-1,4.768445E0],"split_indices":[0,0,0,3,3,2,1,0,0,0,0,0,0,0,0],"split_type":[0,0,0,0,0,0,0,0,0,0,0,0,0,0,0],"sum_hessian":[1E3,5.58E2,4.42E2,1.6E1,5.42E2,4.17E2,2.5E1,1E0,1.5E1,4.28E2,1.14E2,2.72E2,1.45E2,2.4E1,1E0],"tree_param":{"num_deleted":"0","num_feature":"4","num_nodes":"15","size_leaf_vector":"1"}},{"base_weights":[1.2724519E-2,-8.841264E-1,5.0670786E0,5.385798E0,-1.6512132E0,4.0297823E0,1.7902687E1,1.4539746E0,4.1077352E-1,-2.2864352E-1,5.787231E-1,-4.7070858E-1,4.5906997E-1,8.624069E-1,3.1984253E0],"categories":[],"categories_nodes":[],"categories_segments":[],"categories_sizes":[],"default_left":[0,0,0,0,0,0,0,0,0,0,0,0,0,0,0],"id":41,"left_children":[1,3,5,7,9,11,13,-1,-1,-1,-1,-1,-1,-1,-1],"loss_changes":[4.542015E3,4.1018423E3,1.9383203E3,1.0283113E3,3.599555E3,7.126023E2,1.1613977E3,0E0,0E0,0E0,0E0,0E0,0E0,0E0,0E0],"parents":[2147483647,0,0,1,1,2,2,3,3,4,4,5,5,6,6],"right_children":[2,4,6,8,10,12,14,-1,-1,-1,-1,-1,-1,-1,-1],"split_conditions":[1.11081825E2,3.796799E3,4.7480222E2,2.7881382E3,1.1951001E3,3.2216855E2,1.16073456E2,1.4539746E0,4.1077352E-1,-2.2864352E-1,5.787231E-1,-4.7070858E-1,4.5906997E-1,8.624069E-1,3.1984253E0],"split_indices":[1,2,0,2,3,0,1,0,0,0,0,0,0,0,0],"split_type":[0,0,0,0,0,0,0,0,0,0,0,0,0,0,0],"sum_hessian":[1E3,8.5E2,1.5E2,9.2E1,7.58E2,1.4E2,1E1,1E1,8.2E1,6.99E2,5.9E1,8E0,1.32E2,7E0,3E0],"tree_param":{"num_deleted":"0","num_feature":"4","num_nodes":"15","size_leaf_vector":"1"}},{"base_weights":[1.7706294E-2,-4.051257E0,1.0071592E0,-5.765044E0,1.2077587E0,-5.729299E0,1.62566E0,-2.24365E0,-5.146139E-1,-1.1506042E0,2.91401E-1,2.4634789E-1,-7.184321E-1,1.1663156E-1,1.0563239E0],"categories":[],"categories_nodes":[],"categories_segments":[],"categories_sizes":[],"default_left":[0,0,0,0,0,0,0,0,0,0,0,0,0,0,0],"id":42,"left_children":[1,3,5,7,9,11,13,-1,-1,-1,-1,-1,-1,-1,-1],"loss_changes":[4.0341545E3,1.7734785E3,3.3675166E3,1.4116094E3,1.0964827E3,8.283037E2,3.0215908E3,0E0,0E0,0E0,0E0,0E0,0E0,0E0,0E0],"parents":[2147483647,0,0,1,1,2,2,3,3,4,4,5,5,6,6],"right_children":[2,4,6,8,10,12,14,-1,-1,-1,-1,-1,-1,-1,-1],"split_conditions":[3.5908896E2,1.1192858E3,9.023075E2,2.764178E2,2.9874286E2,3.9959453E3,4.9004703E2,-2.24365E0,-5.146139E-1,-1.1506042E0,2.91401E-1,2.4634789E-1,-7.184321E-1,1.1663156E-1,1.0563239E0],"split_indices":[0,3,3,0,0,2,0,0,0,0,0,0,0,0,0],"split_type":[0,0,0,0,0,0,0,0,0,0,0,0,0,0,0],"sum_hessian":[1E3,1.95E2,8.05E2,1.47E2,4.8E1,6.7E1,7.38E2,4E0,1.43E2,5E0,4.3E1,1E1,5.7E1,7.03E2,3.5E1],"tree_param":{"num_deleted":"0","num_feature":"4","num_nodes":"15","size_leaf_vector":"1"}},{"base_weights":[1.3031707E-2,-9.4568473E-1,4.005969E0,-3.966111E0,3.5274148E-1,3.5282266E0,2.581668E1,-2.3022316E-1,-8.1286156E-1,-7.2763674E-2,4.2096353E-1,7.4868816E-1,2.1094875E-1,-2.2531128E-1,3.5924318E0],"categories":[],"categories_nodes":[],"categories_segments":[],"categories_sizes":[],"default_left":[0,0,0,0,0,0,0,0,0,0,0,0,0,0,0],"id":43,"left_children":[1,3,5,7,9,11,13,-1,-1,-1,-1,-1,-1,-1,-1],"loss_changes":[3.8357114E3,3.1702139E3,1.9303745E3,1.664281E3,2.3615305E3,1.0569194E3,1.2158186E3,0E0,0E0,0E0,0E0,0E0,0E0,0E0,0E0],"parents":[2147483647,0,0,1,1,2,2,3,3,4,4,5,5,6,6],"right_children":[2,4,6,8,10,12,14,-1,-1,-1,-1,-1,-1,-1,-1],"split_conditions":[1.0952875E2,3.7449918E2,5.1353467E2,5.4838765E3,1.1339469E3,4.3224355E3,8.5488983E2,-2.3022316E-1,-8.1286156E-1,-7.2763674E-2,4.2096353E-1,7.4868816E-1,2.1094875E-1,-2.2531128E-1,3.5924318E0],"split_indices":[1,0,0,2,3,2,3,0,0,0,0,0,0,0,0],"split_type":[0,0,0,0,0,0,0,0,0,0,0,0,0,0,0],"sum_hessian":[1E3,8.07E2,1.93E2,2.42E2,5.65E2,1.9E2,3E0,1.74E2,6.8E1,4.42E2,1.23E2,4.9E1,1.41E2,1E0,2E0],"tree_param":{"num_deleted":"0","num_feature":"4","num_nodes":"15","size_leaf_vector":"1"}},{"base_weights":[1.53502505E-2,-2.6406102E0,1.3373524E0,-3.7569563E0,2.7171853E0,-7.3409243E0,1.7991828E0,-6.8937886E-1,-2.1767104E-1,6.586961E-1,-4.1406807E-2,-2.0312574E0,-4.9342856E-1,-1.8156455E-1,2.8513858E-1],"categories":[],"categories_nodes":[],"categories_segments":[],"categories_sizes":[],"default_left":[0,0,0,0,0,0,0,0,0,0,0,0,0,0,0],"id":44,"left_children":[1,3,5,7,9,11,13,-1,-1,-1,-1,-1,-1,-1,-1],"loss_changes":[3.518228E3,2.0019326E3,2.6944868E3,1.3531172E3,7.0552795E2,9.6118665E2,2.4242244E3,0E0,0E0,0E0,0E0,0E0,0E0,0E0,0E0],"parents":[2147483647,0,0,1,1,2,2,3,3,4,4,5,5,6,6],"right_children":[2,4,6,8,10,12,14,-1,-1,-1,-1,-1,-1,-1,-1],"split_conditions":[9.67732E1,1.1581985E3,3.2216855E2,3.8504962E2,4.696274E3,2.764178E2,9.636117E2,-6.8937886E-1,-2.1767104E-1,6.586961E-1,-4.1406807E-2,-2.0312574E0,-4.9342856E-1,-1.8156455E-1,2.8513858E-1],"split_indices":[1,3,0,0,2,0,3,0,0,0,0,0,0,0,0],"split_type":[0,0,0,0,0,0,0,0,0,0,0,0,0,0,0],"sum_hessian":[1E3,3.32E2,6.68E2,2.75E2,5.7E1,3.3E1,6.35E2,9.1E1,1.84E2,2.5E1,3.2E1,4E0,2.9E1,1.43E2,4.92E2],"tree_param":{"num_deleted":"0","num_feature":"4","num_nodes":"15","size_leaf_vector":"1"}},{"base_weights":[1.1094435E-2,5.0390453E0,-6.6006994E-1,1.3598118E0,4.2929482E0,-1.1302513E0,6.733344E0,1.3204534E-1,6.0400766E-1,-3.8056746E-1,1.1305621E-2,5.325049E-1,1.3026673E0],"categories":[],"categories_nodes":[],"categories_segments":[],"categories_sizes":[],"default_left":[0,0,0,0,0,0,0,0,0,0,0,0,0],"id":45,"left_children":[1,3,5,-1,7,9,11,-1,-1,-1,-1,-1,-1],"loss_changes":[3.3812822E3,6.9516016E2,3.0806116E3,0E0,5.6329065E2,2.7679731E3,4.0036426E2,0E0,0E0,0E0,0E0,0E0,0E0],"parents":[2147483647,0,0,1,1,2,2,4,4,5,5,6,6],"right_children":[2,4,6,-1,8,10,12,-1,-1,-1,-1,-1,-1],"split_conditions":[3.8623142E3,2.703819E3,1.2143378E3,1.3598118E0,9.9685455E2,9.634679E1,1.1185704E2,1.3204534E-1,6.0400766E-1,-3.8056746E-1,1.1305621E-2,5.325049E-1,1.3026673E0],"split_indices":[2,2,3,0,3,1,1,0,0,0,0,0,0],"split_type":[0,0,0,0,0,0,0,0,0,0,0,0,0],"sum_hessian":[1E3,1.17E2,8.83E2,8E0,1.09E2,8.31E2,5.2E1,4.1E1,6.8E1,2.63E2,5.68E2,4.4E1,8E0],"tree_param":{"num_deleted":"0","num_feature":"4","num_nodes":"13","size_leaf_vector":"1"}},{"base_weights":[1.3543159E-2,-7.7909553E-1,4.123438E0,1.2456493E0,-2.3603492E0,1.9670318E0,8.170081E0,-5.5596584E-1,1.7777126E-1,-2.8360486E-1,5.908804E-1,7.231305E-2,5.135608E-1,6.2074727E-1,2.6947193E0],"categories":[],"categories_nodes":[],"categories_segments":[],"categories_sizes":[],"default_left":[0,0,0,0,0,0,0,0,0,0,0,0,0,0,0],"id":46,"left_children":[1,3,5,7,9,11,13,-1,-1,-1,-1,-1,-1,-1,-1],"loss_changes":[3.2641318E3,2.6923135E3,1.3975745E3,1.3459785E3,1.8734319E3,4.1801572E2,1.8964446E3,0E0,0E0,0E0,0E0,0E0,0E0,0E0,0E0],"parents":[2147483647,0,0,1,1,2,2,3,3,4,4,5,5,6,6],"right_children":[2,4,6,8,10,12,14,-1,-1,-1,-1,-1,-1,-1,-1],"split_conditions":[4.4857855E2,4.809096E3,1.0949219E3,8.6769104E1,1.2254933E3,4.9004703E2,5.1353467E2,-5.5596584E-1,1.7777126E-1,-2.8360486E-1,5.908804E-1,7.231305E-2,5.135608E-1,6.2074727E-1,2.6947193E0],"split_indices":[0,2,3,1,3,0,0,0,0,0,0,0,0,0,0],"split_type":[0,0,0,0,0,0,0,0,0,0,0,0,0,0,0],"sum_hessian":[1E3,8.39E2,1.61E2,3.68E2,4.71E2,1.06E2,5.5E1,2.6E1,3.42E2,4.46E2,2.5E1,7.7E1,2.9E1,5.1E1,4E0],"tree_param":{"num_deleted":"0","num_feature":"4","num_nodes":"15","size_leaf_vector":"1"}},{"base_weights":[1.602304E-2,-3.2787619E0,8.7912035E-1,-3.0412414E0,-3.0007615E0,4.0947005E-1,8.011365E0,-3.1236634E-2,-4.6238813E-1,-3.9435184E-1,1.073878E-1,6.2094754E-1,2.6730256E0],"categories":[],"categories_nodes":[],"categories_segments":[],"categories_sizes":[],"default_left":[0,0,0,0,0,0,0,0,0,0,0,0,0],"id":47,"left_children":[1,3,5,-1,7,9,11,-1,-1,-1,-1,-1,-1],"loss_changes":[2.849446E3,1.4777178E3,2.65635E3,0E0,9.0181836E2,2.1617866E3,1.4867583E3,0E0,0E0,0E0,0E0,0E0,0E0],"parents":[2147483647,0,0,1,1,2,2,4,4,5,5,6,6],"right_children":[2,4,6,-1,8,10,12,-1,-1,-1,-1,-1,-1],"split_conditions":[9.618932E2,2.764178E2,4.775576E2,-3.0412414E0,4.473752E3,8.937607E1,1.16073456E2,-3.1236634E-2,-4.6238813E-1,-3.9435184E-1,1.073878E-1,6.2094754E-1,2.6730256E0],"split_indices":[3,0,0,0,2,1,1,0,0,0,0,0,0],"split_type":[0,0,0,0,0,0,0,0,0,0,0,0,0],"sum_hessian":[1E3,2.07E2,7.93E2,1E0,2.06E2,7.45E2,4.8E1,7.8E1,1.28E2,9.8E1,6.47E2,4.5E1,3E0],"tree_param":{"num_deleted":"0","num_feature":"4","num_nodes":"13","size_leaf_vector":"1"}},{"base_weights":[1.3902906E-2,-5.213498E-1,5.065205E0,-7.266443E0,-1.2721208E-1,4.307059E0,3.8544557E0,-1.0452113E0,-5.147875E-1,-4.5398894E-1,5.9046883E-2,3.1567523E-1,9.05244E-1],"categories":[],"categories_nodes":[],"categories_segments":[],"categories_sizes":[],"default_left":[0,0,0,0,0,0,0,0,0,0,0,0,0],"id":48,"left_children":[1,3,5,7,9,11,-1,-1,-1,-1,-1,-1,-1],"loss_changes":[2.7090674E3,2.4076724E3,2.2706824E3,2.8364697E2,2.7167092E3,4.899945E2,0E0,0E0,0E0,0E0,0E0,0E0,0E0],"parents":[2147483647,0,0,1,1,2,2,3,3,4,4,5,5],"right_children":[2,4,6,8,10,12,-1,-1,-1,-1,-1,-1,-1],"split_conditions":[1.13757065E2,8.843377E2,5.1353467E2,9.662914E1,3.4867422E2,1.1381407E3,3.8544557E0,-1.0452113E0,-5.147875E-1,-4.5398894E-1,5.9046883E-2,3.1567523E-1,9.05244E-1],"split_indices":[1,3,0,1,0,3,0,0,0,0,0,0,0],"split_type":[0,0,0,0,0,0,0,0,0,0,0,0,0],"sum_hessian":[1E3,9.05E2,9.5E1,4.9E1,8.56E2,9.4E1,1E0,1.8E1,3.1E1,1.19E2,7.37E2,7.7E1,1.7E1],"tree_param":{"num_deleted":"0","num_feature":"4","num_nodes":"13","size_leaf_vector":"1"}},{"base_weights":[1.5631098E-2,1.5806024E0,-1.5493715E0,1.3863422E0,2.057395E1,-7.5742216E0,-9.8157644E-1,6.0588634E-1,7.912122E-2,-5.908203E-2,3.4880738E0,-1.9045374E0,-5.9093505E-1,-1.7041396E-1,3.5046196E-1],"categories":[],"categories_nodes":[],"categories_segments":[],"categories_sizes":[],"default_left":[0,0,0,0,0,0,0,0,0,0,0,0,0,0,0],"id":49,"left_children":[1,3,5,7,9,11,13,-1,-1,-1,-1,-1,-1,-1,-1],"loss_changes":[2.454082E3,1.8199933E3,1.706426E3,1.3772427E3,1.5346074E3,7.086682E2,1.4938481E3,0E0,0E0,0E0,0E0,0E0,0E0,0E0,0E0],"parents":[2147483647,0,0,1,1,2,2,3,3,4,4,5,5,6,6],"right_children":[2,4,6,8,10,12,14,-1,-1,-1,-1,-1,-1,-1,-1],"split_conditions":[5.000207E3,5.2866797E2,3.3550195E2,3.4688926E3,1.0658053E3,2.900597E2,1.1164739E2,6.0588634E-1,7.912122E-2,-5.908203E-2,3.4880738E0,-1.9045374E0,-5.9093505E-1,-1.7041396E-1,3.5046196E-1],"split_indices":[2,0,0,2,3,0,1,0,0,0,0,0,0,0,0],"split_type":[0,0,0,0,0,0,0,0,0,0,0,0,0,0,0],"sum_hessian":[1E3,5E2,5E2,4.96E2,4E0,4.2E1,4.58E2,5.5E1,4.41E2,2E0,2E0,4E0,3.8E1,3.95E2,6.3E1],"tree_param":{"num_deleted":"0","num_feature":"4","num_nodes":"15","size_leaf_vector":"1"}}]},"name":"gbtree"},"learner_model_param":{"base_score":"[9.7770306E2]","boost_from_average":"1","num_class":"0","num_feature":"4","num_target":"1"},"objective":{"name":"reg:squarederror","reg_loss_param":{"scale_pos_weight":"1"}}},"version":[3,1,3]}